%YAML:1.0
---
my_detector: !!opencv-object-detector-hog
   winSize: [ 64, 128 ]
   blockSize: [ 16, 16 ]
   blockStride: [ 8, 8 ]
   cellSize: [ 8, 8 ]
   nbins: 9
   derivAperture: 1
   winSigma: 4.
   histogramNormType: 0
   L2HysThreshold: 2.0000000000000001e-01
   gammaCorrection: 1
   nlevels: 64
   signedGradient: 0
   SVMDetector: [ -5.56232524e-04, -3.13454717e-02, -1.43535286e-02,
       -2.63578165e-03, -1.78073382e-03, -1.92667060e-02,
       -6.42135134e-03, -1.94473770e-02, 1.60781387e-02, 2.74337661e-02,
       -6.26804912e-03, -7.09028635e-03, -1.45207131e-02,
       -2.88416222e-02, 6.25463901e-03, -1.37581322e-02, -3.04974709e-03,
       4.34455946e-02, 4.78119515e-02, -6.46651862e-03, 6.36067893e-03,
       9.00093652e-03, 4.41937596e-02, -3.37890342e-05, -1.99059229e-02,
       -3.36201973e-02, 3.77114303e-02, 8.61330796e-03, 4.51714266e-03,
       4.20588488e-03, 2.02703141e-02, -6.12228317e-03, 1.00464951e-02,
       -1.51136778e-02, -1.30558042e-02, 4.96098958e-03, 1.36410957e-02,
       -6.53659552e-03, 1.30054541e-02, 2.63045598e-02, -4.07258142e-03,
       3.68216611e-03, -2.01966483e-02, 9.20765568e-03, 3.70290503e-02,
       2.31346432e-02, 1.04052890e-02, 2.84028705e-02, 4.69155908e-02,
       4.14590687e-02, 2.82298140e-02, 1.24874869e-02, 3.90233584e-02,
       1.68510359e-02, -1.39527591e-02, 1.35301836e-02, 1.71527900e-02,
       2.33749989e-02, 1.04583893e-02, 1.07050370e-02, -7.10026314e-03,
       1.82628557e-02, -3.56585556e-03, 1.90603416e-02, 4.39861557e-03,
       -4.18403139e-03, 1.55540723e-02, 1.11598670e-02, 9.84984264e-03,
       8.51351582e-03, 2.13745162e-02, 1.63797811e-02, 1.40213622e-02,
       1.91297662e-02, 2.54292004e-02, 2.01917049e-02, 1.73623618e-02,
       1.93090905e-02, 2.32579914e-04, 1.04795126e-02, 1.70269213e-03,
       2.72372309e-02, 1.89309102e-02, 1.25772180e-02, 8.65250174e-03,
       1.81820549e-04, -7.79547961e-03, 1.04887523e-02, 2.02743411e-02,
       5.64102940e-02, 4.03779419e-03, 6.65306812e-03, -1.69105642e-02,
       -7.51786958e-03, -1.21196434e-02, -3.51206213e-03,
       -1.51558183e-02, 5.58282901e-03, 1.35986162e-02, 2.61710789e-02,
       -1.20556029e-02, -2.97336206e-02, 9.29642934e-04, 2.59631686e-03,
       -1.87125187e-02, 2.44066268e-02, 4.14177626e-02, 5.57850953e-03,
       1.98173337e-02, 1.25279054e-02, -1.31854108e-02, -2.72980575e-02,
       -7.81785883e-03, -1.32726068e-02, 1.21187931e-02, 1.95109993e-02,
       3.03086396e-02, -3.03575192e-02, 7.64148450e-03, -1.20746335e-02,
       -1.79470591e-02, -5.07214107e-04, -8.09510238e-03,
       -3.48715088e-03, 3.02872136e-02, 3.31362546e-03, 2.40956545e-02,
       -7.72134925e-04, -1.25078466e-02, 4.95557953e-03, 1.10538080e-02,
       -2.55257506e-02, 1.07578374e-02, 2.69546974e-02, -2.12295204e-02,
       -3.64724472e-02, -5.14499657e-03, -2.22537126e-02,
       -1.33364778e-02, 1.29539901e-02, -2.31968835e-02, -1.59339942e-02,
       6.09173498e-04, -5.15581034e-02, -2.41982751e-02, 1.86855625e-02,
       -2.63282508e-02, 1.12305554e-02, 7.25176372e-03, -8.70191399e-03,
       2.55141454e-03, 3.63925993e-02, -7.76543655e-03, -1.42263435e-02,
       -4.17478289e-03, -3.89301740e-02, -2.47217901e-02, 4.40429598e-02,
       -4.34479043e-02, -2.37779990e-02, -1.70243699e-02,
       -2.63685100e-02, 1.03242612e-02, 4.58984263e-02, -7.76425796e-03,
       3.17083579e-03, 2.36765537e-02, -4.82397154e-04, 1.69321056e-02,
       4.60670441e-02, -1.03808870e-03, -2.90794820e-02, -5.06447209e-03,
       -5.84430322e-02, -1.84051134e-02, 1.94527451e-02, -3.47750001e-02,
       -1.28311757e-03, 7.76026212e-03, -1.29800877e-02, -1.90379694e-02,
       -3.50780017e-03, -5.36110364e-02, 2.63763238e-02, 2.18627471e-02,
       1.15940860e-02, -1.08726509e-02, 1.57359317e-02, -9.47627425e-03,
       -1.89364590e-02, -2.44609895e-03, -2.52777021e-02, 1.69908851e-02,
       -2.70816777e-02, -5.55590913e-02, -4.18314375e-02, 9.87409428e-03,
       -1.35066069e-03, 3.04438323e-02, 1.55191487e-02, -3.50490175e-02,
       5.72339445e-02, 2.15523560e-02, 3.18023525e-02, -1.31603787e-02,
       3.63649763e-02, -6.81205606e-03, -1.19674311e-03, 3.89696471e-02,
       -7.01003615e-03, 1.07469549e-02, -1.78886559e-02, -3.61081772e-02,
       -2.57117245e-02, 2.49446202e-02, 7.88024534e-03, 2.84266192e-03,
       1.65362377e-02, 1.59548537e-03, 2.82222796e-02, 1.56476703e-02,
       -1.77918039e-02, -1.51202399e-02, 3.60679589e-02, 9.69205704e-03,
       -3.27577032e-02, -8.65509827e-03, -2.62117293e-02, 5.54835424e-03,
       1.16554238e-02, -1.57789923e-02, -2.12988090e-02, 4.89407033e-02,
       -5.79773309e-03, 3.95737542e-03, 3.12939361e-02, 1.28385173e-02,
       5.13961315e-02, 1.97042041e-02, -1.78662722e-03, 1.32402306e-06,
       5.53789325e-02, 1.79890469e-02, -2.80302726e-02, 1.16958264e-02,
       5.10874297e-03, -1.48445470e-04, 2.09670840e-03, -1.22509766e-02,
       -2.23455839e-02, 3.00571173e-02, -1.03462338e-02, -7.64152734e-03,
       1.39400335e-02, -2.33539511e-02, 5.76946931e-03, 1.24288369e-02,
       -4.86635882e-03, -3.19368057e-02, 2.46102065e-02, -1.17800431e-02,
       1.24941999e-03, 1.47033054e-02, -3.21430713e-02, -4.50676121e-02,
       -4.60387729e-02, -1.69882998e-02, -1.89904980e-02, 2.29730941e-02,
       -3.25007476e-02, 1.92648433e-02, 3.08308527e-02, 6.65911799e-03,
       2.13520620e-02, 3.94787826e-02, 1.83845274e-02, -3.00785024e-02,
       1.01706665e-02, 1.28146987e-02, -1.50986365e-03, 3.52545152e-03,
       -1.48608526e-02, -2.38016937e-02, -2.42434666e-02,
       -1.75328553e-02, -1.98902562e-03, 2.37735491e-02, -2.81469058e-03,
       -1.50385145e-02, -1.01089012e-02, 6.35909941e-03, -8.19267053e-03,
       -3.11228883e-04, -1.60984490e-02, -9.61332582e-03, 1.34670772e-02,
       -2.34929770e-02, -2.81775892e-02, -1.98615231e-02,
       -1.02951443e-02, -1.74601958e-03, 1.79213211e-02, -2.64878608e-02,
       -2.67256498e-02, -1.53756300e-02, -2.54323017e-02, 4.04434977e-03,
       -9.38254409e-03, 1.06907813e-02, -9.01265722e-03, -2.99962480e-02,
       2.73974556e-02, 2.42946520e-02, 3.12636085e-02, 3.76142911e-03,
       -1.26439184e-02, 5.03742881e-03, -2.67286599e-03, -8.43999255e-03,
       -3.25448532e-03, 4.85470472e-03, -2.41108332e-03, 7.42205791e-03,
       -1.56597942e-02, -2.83773150e-02, -1.26220426e-02,
       -2.82979663e-02, 7.47105991e-03, -1.65925995e-02, 4.42861533e-03,
       -1.12703880e-02, -6.34801015e-03, 2.48885565e-02, -1.50361033e-02,
       4.02556593e-03, -3.85392271e-02, -2.63078921e-02, 2.52121035e-03,
       3.49876285e-03, -1.05869966e-02, -5.46051003e-03, 1.79164670e-02,
       -4.14824951e-03, -5.70798665e-03, 5.14489226e-03, 2.50737742e-02,
       -2.82536466e-02, 2.44184621e-02, 2.78918408e-02, 2.44795196e-02,
       -2.38543320e-02, -1.84756517e-02, -8.44015554e-03,
       -2.17680018e-02, 8.41776561e-03, 8.15324485e-03, -1.57192498e-02,
       9.23722051e-03, -7.35140545e-03, -4.20011431e-02, -2.23800112e-02,
       1.39249004e-02, -1.85287371e-02, -1.19263697e-02, 2.04790644e-02,
       2.20304597e-02, -3.10469512e-02, -9.92852543e-03, 5.08876098e-03,
       -2.92683281e-02, -8.35398957e-03, -1.72631778e-02,
       -2.17041746e-02, -5.30973412e-02, -9.08737537e-03,
       -4.54478189e-02, 3.04295565e-03, -2.45564058e-02, -6.83068531e-03,
       1.06333494e-02, 6.39597932e-03, 3.88184972e-02, 2.83233747e-02,
       1.30202835e-02, 9.86457895e-03, 2.03096997e-02, -2.72910967e-02,
       -3.43828537e-02, 4.33022251e-06, 1.45186053e-03, 3.33240405e-02,
       -4.74031037e-03, 1.12122465e-02, -5.01630874e-03, 1.13145579e-02,
       -3.15265507e-02, -1.52574312e-02, -1.14904623e-02,
       -1.29272012e-04, -2.54953769e-03, -2.33793519e-02, 1.30497282e-02,
       -1.42556550e-02, 3.25879715e-02, 1.91523116e-02, -2.78991666e-02,
       -3.68376784e-02, -2.27091853e-02, -6.77632773e-03,
       -1.78307835e-02, -2.50130538e-02, -4.49812412e-02,
       -2.88686738e-03, -1.50620043e-02, 6.14136411e-03, 7.02998077e-04,
       -3.08573572e-03, 1.69863943e-02, 1.17467782e-02, 4.51287478e-02,
       1.18390741e-02, 1.62601508e-02, 1.49899991e-02, -2.75370479e-02,
       -1.73032880e-02, -1.81386732e-02, -7.76997907e-03,
       -1.27301458e-02, 9.21191240e-04, -9.83365532e-03, -4.21501622e-02,
       -5.51116057e-02, -5.35700284e-03, -4.25805058e-03, 1.43091148e-02,
       3.12394109e-02, 1.11671360e-02, -3.17883007e-02, -3.84452045e-02,
       -5.79926651e-03, -1.01400716e-02, -1.67347416e-02,
       -2.11399831e-02, -2.07978282e-02, 7.37678353e-03, -3.96016100e-03,
       -1.97147653e-02, -4.74591320e-03, 8.41150805e-03, -1.11152083e-02,
       1.38397971e-02, 1.51376864e-02, 3.05758081e-02, 3.48330922e-02,
       2.17089541e-02, 1.01045659e-02, -3.08231195e-03, 1.40316859e-02,
       -3.27652991e-02, -1.14532681e-02, 1.20857516e-02, 1.25902696e-02,
       -2.10117386e-03, -1.37418900e-02, -5.77049842e-03,
       -3.46488692e-03, 1.51806390e-02, -2.31758952e-02, -2.51684524e-02,
       -8.50580540e-03, 2.80649420e-02, 6.08559065e-02, -2.97898636e-03,
       -1.91356745e-02, -1.52314836e-02, 4.14048061e-02, -3.10489279e-03,
       -3.02705783e-02, -4.04033922e-02, -1.82168151e-03,
       -6.99713966e-03, 2.59648226e-02, -8.46617762e-03, -4.08253409e-02,
       -2.19691209e-02, 5.54648752e-04, 1.18524348e-02, 1.80264115e-02,
       3.40451077e-02, 2.02080831e-02, -9.06649884e-03, 3.10828723e-02,
       1.55526213e-02, 3.14371511e-02, 1.25665637e-02, -1.57474317e-02,
       -3.60633992e-02, 1.73708834e-02, 1.25240041e-02, 1.76785123e-02,
       1.12555670e-02, -2.01483909e-02, -1.47028295e-02, 1.36064980e-02,
       1.84107050e-02, -2.14851834e-02, -2.26158630e-02, 1.16720761e-03,
       -2.80025154e-02, 1.84355695e-02, -1.09688267e-02, -7.87763204e-03,
       2.22215354e-02, 2.85461675e-02, -3.57225239e-02, 4.39873151e-03,
       4.26549613e-02, -3.12584229e-02, 3.55128385e-03, -2.45070439e-02,
       -1.81136634e-02, 9.70561616e-03, 1.67889576e-02, -2.28941031e-02,
       1.76718365e-02, 3.24464478e-02, 1.67004019e-02, 5.07242829e-02,
       -1.10038528e-02, -1.00811440e-02, 2.95576192e-02, 3.44508626e-02,
       -1.62495114e-02, 2.42353622e-02, 2.30515059e-02, -1.94746908e-02,
       4.57920618e-02, -4.06797510e-03, -3.49565633e-02, 1.41175054e-02,
       5.43095283e-02, -9.54950787e-03, -5.19529870e-03, -9.23961867e-03,
       4.80270833e-02, 3.50686796e-02, -1.21642873e-02, -5.51494258e-03,
       3.04308161e-02, 3.85362618e-02, 1.74114555e-02, 1.72743928e-02,
       -4.39110864e-03, 2.18613409e-02, 1.93316154e-02, 3.90038802e-03,
       1.52066136e-02, 5.60599612e-04, 9.62673873e-03, -2.31270716e-02,
       -9.55389533e-03, 1.19998418e-02, -1.37295499e-02, 1.25508923e-02,
       -3.12945768e-02, -7.43949646e-03, 3.24590206e-02, 1.91752166e-02,
       -6.82296138e-03, -3.83588090e-03, 1.02328919e-02, -2.69918106e-02,
       1.87734999e-02, 7.58516788e-03, 1.08877989e-02, 1.11302109e-02,
       9.80991777e-03, 5.78949088e-03, 1.00473287e-02, -3.04058976e-02,
       2.83795949e-02, 1.31393159e-02, -9.02127940e-03, 1.89686082e-02,
       1.12584475e-02, 2.81307306e-02, -1.94834433e-02, -6.06933516e-03,
       -3.20698470e-02, 3.42695378e-02, -5.02626691e-03, -5.66393882e-03,
       -1.00109982e-03, 3.18669043e-02, 6.99708052e-03, -1.29125267e-02,
       4.04804014e-03, -1.58034991e-02, -6.71996386e-04, 4.23054248e-02,
       3.40424501e-03, -1.12554859e-02, 1.90247055e-02, 2.31137164e-02,
       -3.16542871e-02, -3.30583396e-04, -8.49576108e-03,
       -3.28538828e-02, -6.78709592e-04, -5.08705806e-03,
       -3.31748314e-02, 2.23673489e-02, -7.78552098e-03, 1.63876137e-03,
       1.00028608e-02, -7.37644266e-03, 4.05791402e-02, 2.50551529e-04,
       -2.52275486e-02, -1.28034232e-02, 1.11240114e-03, 9.57215484e-03,
       2.58227065e-02, 2.80104461e-03, -8.47894466e-04, 6.06303476e-03,
       2.73346640e-02, 3.39757726e-02, 5.23990914e-02, 9.08473972e-03,
       1.93088390e-02, 6.98184827e-03, 1.28469905e-02, -1.57585721e-02,
       4.55693752e-02, 8.80406238e-03, -5.37239015e-04, 1.25759861e-05,
       2.24757139e-02, -3.51340771e-02, -1.57409329e-02, -2.61774249e-02,
       -1.13944933e-02, -3.47338920e-03, 1.23208901e-02, 1.99561175e-02,
       4.41251360e-02, 7.68812327e-03, -8.77655856e-03, 3.33702588e-03,
       -1.55377630e-02, -2.73483079e-02, 6.95720408e-03, 1.61215048e-02,
       1.26323216e-02, 6.44123461e-03, -2.99911778e-02, 1.14955558e-02,
       3.61618958e-02, -6.14443095e-03, -1.56310983e-02, 4.04280834e-02,
       1.73738375e-02, -2.73032347e-03, -7.32801203e-03, -3.96036692e-02,
       -2.22498700e-02, 2.50074454e-02, 2.36564223e-02, 5.78263775e-03,
       -2.33539939e-02, 5.96948108e-03, 5.26938587e-03, 1.19250631e-02,
       -1.39707383e-02, 2.45167725e-02, 5.11195660e-02, 1.72557142e-02,
       2.35020742e-03, 7.30583724e-03, 1.41934197e-06, -3.67485732e-03,
       -1.79762039e-02, -2.04455014e-02, 4.35168929e-02, 6.92155212e-02,
       -1.54190930e-02, -2.50904635e-02, 1.91226043e-02, 1.38765359e-02,
       1.81873124e-02, 6.17286982e-03, -6.93156756e-03, 1.85524337e-02,
       3.64444889e-02, -4.07306701e-02, -3.10107414e-02, 3.38243693e-02,
       -1.11858798e-02, -1.47429835e-02, -5.88383118e-04,
       -2.30075363e-02, 5.87243885e-02, 1.13085687e-01, -1.05250953e-03,
       -2.96181440e-02, 1.11758534e-03, -1.11533916e-02, -3.00670136e-03,
       -1.88974701e-02, -2.95911096e-02, 4.63542249e-03, 3.20382193e-02,
       -5.72120473e-02, -1.53379776e-02, 1.92267187e-02, -4.77211326e-02,
       -1.91996694e-02, -3.37702818e-02, -3.58944498e-02, 2.07383875e-02,
       2.00403444e-02, -2.74065100e-02, -4.58895927e-03, 3.29321735e-02,
       2.04002783e-02, -7.26759294e-03, 2.65961140e-02, 1.55226542e-02,
       -2.05730442e-02, 1.37539031e-02, -2.08945349e-02, 1.02154929e-02,
       4.13697064e-02, -3.82345938e-03, -2.74640396e-02, 1.53501779e-02,
       -1.15045970e-02, -5.28838392e-03, 2.97016446e-02, 1.46671273e-02,
       3.82635510e-03, 4.85461950e-03, 2.30737925e-02, -4.65261238e-03,
       -1.09476689e-02, -2.92192679e-02, -1.01916986e-02, 2.70569511e-02,
       -1.64479227e-03, 2.83719925e-03, -5.78208314e-03, 3.77587555e-03,
       -8.09361227e-04, -7.64736068e-03, -5.18406704e-02, 4.87731450e-04,
       7.78776454e-03, -1.93843618e-02, 1.26623809e-02, 4.72214073e-02,
       -1.34046515e-03, -2.07953658e-02, 4.59815189e-02, 1.87121443e-02,
       1.51816523e-02, -4.53246059e-03, -1.89199243e-02, -2.64835618e-02,
       1.94216648e-03, -4.97296564e-02, -3.96108963e-02, 1.40404217e-02,
       4.35517635e-03, 4.82685529e-02, 7.94574544e-02, -2.27232520e-02,
       5.08938171e-03, 2.19296068e-02, -1.06029650e-02, 3.71436775e-03,
       2.11482421e-02, 2.16691289e-03, 9.46918037e-03, 5.07174842e-02,
       -4.21568453e-02, -2.42241435e-02, -1.04356082e-02,
       -2.54539363e-02, -3.26203718e-03, 1.56852882e-02, -2.12297272e-02,
       2.03481354e-02, -7.43927108e-03, -1.63040461e-03, 3.94049194e-03,
       3.34009936e-04, -1.98708754e-02, -3.45717035e-02, 1.27591658e-02,
       3.34289260e-02, -1.88816413e-02, -3.35747190e-02, -1.86310709e-02,
       -5.01403073e-03, 1.23940955e-03, -1.97418500e-02, -7.92693626e-03,
       6.34972332e-03, 1.63546689e-02, 3.25287841e-02, 4.00733985e-02,
       -3.38907191e-03, 9.65065230e-03, 9.05099232e-03, 2.23815404e-02,
       1.00963991e-02, 2.56207548e-02, -1.26488172e-04, -2.48824619e-03,
       1.35379620e-02, -1.17586600e-02, -1.01779783e-02, 9.20308102e-03,
       3.40969302e-02, -3.56946490e-04, 2.01605130e-02, 1.33798113e-02,
       -1.22367041e-02, -9.30580217e-03, -1.12085743e-02, 5.72044542e-03,
       1.28687229e-02, 1.49154547e-03, -3.18202190e-02, 5.33067156e-03,
       1.68410968e-02, -8.80477577e-03, -6.65614242e-03, -1.58603918e-02,
       -1.09451846e-03, 1.94562078e-02, -1.10954875e-02, -3.93225253e-02,
       -1.33900372e-02, -6.34319242e-03, -1.65510178e-02, 2.61938013e-02,
       4.68007289e-03, 3.02142967e-02, 4.33388762e-02, 6.33488223e-02,
       4.48375288e-03, 1.82875656e-02, 2.64436044e-02, -3.69950719e-02,
       -3.37878913e-02, -1.37799047e-02, 2.81079616e-02, 2.09345054e-02,
       1.23305432e-02, -3.09282597e-02, -1.38485730e-02, -1.71278063e-02,
       -1.38844026e-03, 6.73845457e-03, -1.95803512e-02, 6.44460972e-03,
       -1.17094107e-02, -1.01105198e-02, 3.87113745e-04, 1.80469861e-03,
       -1.26100890e-02, -5.38505800e-03, 1.90925580e-02, -1.97211299e-02,
       9.06689186e-03, -5.41569665e-03, -7.77010806e-03, -1.44778388e-02,
       -1.78067014e-02, -3.15451548e-02, 2.99307629e-02, 2.85664760e-02,
       -1.58637762e-02, 2.43135784e-02, -3.19574797e-03, 7.58989342e-03,
       -1.78596601e-02, 1.67154931e-02, -6.82142470e-03, -1.67838263e-03,
       2.75058113e-02, -4.20039333e-03, -2.93850037e-03, -2.52397936e-02,
       1.19021749e-02, -3.53926122e-02, -1.46191986e-02, -1.68408006e-02,
       -1.71024483e-02, 2.27089003e-02, -2.31096894e-02, -4.65339934e-03,
       -1.59684056e-03, -5.00880228e-03, -1.49947861e-02, 9.97770810e-04,
       -1.04772365e-02, -4.38707471e-02, 5.91606693e-03, -1.89820342e-02,
       1.05388490e-02, -1.54166194e-02, -1.11028729e-02, -4.30649072e-02,
       5.82860725e-04, -7.56421639e-03, 2.52322927e-02, 1.75037980e-02,
       -1.53537886e-02, -1.32505235e-03, 2.54916139e-02, 1.82718225e-02,
       3.81206092e-03, 1.25993732e-02, -5.56675065e-03, -1.47707341e-02,
       1.90835129e-02, -4.48416844e-02, 1.21059837e-02, 1.18230032e-02,
       1.94490850e-02, -3.07219103e-02, -2.37091556e-02, 5.82327647e-03,
       5.52402111e-03, 5.07186726e-03, -1.36819240e-02, -1.41568016e-02,
       -6.13583764e-03, 1.94105841e-02, -3.13539803e-02, -2.14199163e-02,
       2.53572315e-02, -1.16245970e-02, 7.17693800e-03, -8.44304729e-03,
       -4.03652191e-02, -5.92177734e-02, -4.35749888e-02,
       -2.82974485e-02, -4.26800102e-02, -5.43856025e-02, 5.48151601e-03,
       4.01772372e-03, -2.14380622e-02, 2.79682018e-02, 5.37998900e-02,
       3.98584865e-02, -4.69601266e-02, -3.27850729e-02, -2.52630319e-02,
       -8.42787512e-03, 4.56850138e-03, 1.36186637e-03, -4.65579098e-04,
       -2.82297004e-03, 2.17467658e-02, -1.94088556e-02, 1.03026675e-02,
       -4.92686480e-02, -2.28648633e-03, -5.59104467e-03, 1.13060838e-02,
       -2.13706046e-02, -1.45791229e-02, -3.63025926e-02, 3.09893978e-03,
       4.89951856e-03, -1.29760150e-02, -9.50118620e-03, -2.97270957e-02,
       -1.79930255e-02, -5.24903387e-02, -4.47593741e-02,
       -6.30698651e-02, -3.49864326e-02, -7.00523751e-03,
       -1.99608430e-02, 4.95941099e-03, 2.83265263e-02, 1.53790880e-02,
       1.36446394e-02, 5.34251370e-02, 4.78801653e-02, 1.59697104e-02,
       5.00351042e-02, 1.86872073e-02, 5.07485354e-03, 1.16907200e-02,
       8.05883086e-04, -1.63600501e-02, -2.10568774e-03, 1.66730098e-02,
       1.07203675e-02, 4.57109436e-02, -1.43972961e-02, 8.75417795e-03,
       -2.59055961e-02, -2.48671335e-04, -2.52937526e-02,
       -2.60648355e-02, 5.84315509e-03, 9.92337335e-03, 1.36885084e-02,
       -8.92665330e-03, -1.63432816e-03, -3.60896960e-02, 3.92944366e-03,
       -1.53541509e-02, -3.09332423e-02, -3.96334119e-02,
       -1.98077094e-02, 1.07518584e-02, 2.53498312e-02, 2.83681937e-02,
       -2.54032714e-03, 5.86795341e-03, -2.05240329e-03, 1.71074402e-02,
       5.75787760e-02, 5.25958724e-02, 5.04366644e-02, -2.48606340e-03,
       -1.31978318e-02, -5.77857569e-02, -2.83213519e-02,
       -1.80318225e-02, 2.85060727e-04, 1.57157909e-02, -2.04653479e-03,
       -2.02881526e-02, -4.36359039e-03, -1.82948168e-02,
       -3.24724987e-02, 5.39948884e-03, 2.24145725e-02, 4.79023700e-04,
       4.93881479e-03, -2.15409920e-02, 3.16789038e-02, 3.50363962e-02,
       4.98868898e-03, -4.44827080e-02, 1.41923036e-03, 1.82884354e-02,
       -3.70905772e-02, -1.58602558e-02, -2.37439554e-02, 2.21349485e-03,
       2.41805427e-02, 2.88920216e-02, -1.22204321e-02, 1.62530430e-02,
       3.56293879e-02, 8.60521942e-03, 2.53434144e-02, 1.04508037e-03,
       9.09891911e-03, 2.18495615e-02, 3.66867408e-02, -3.25654671e-02,
       2.99854521e-02, 4.52705994e-02, 9.03490186e-03, 2.77183438e-03,
       -1.05428575e-02, -3.12983543e-02, 8.65972135e-03, -3.52474768e-03,
       -1.24224434e-02, 8.06194171e-03, 3.28983776e-02, 4.68930043e-02,
       1.25279054e-02, -3.48205566e-02, -3.02897468e-02, 3.76247265e-03,
       2.64111999e-02, -2.08068583e-02, 9.31454357e-03, 4.10484634e-02,
       2.13511363e-02, 3.85623542e-03, -3.14662755e-02, -9.53300484e-03,
       1.29913120e-02, 8.54550395e-04, -3.81995924e-02, -1.24813840e-02,
       -2.31973873e-03, 4.88656648e-02, 1.45412907e-02, -2.31926516e-02,
       -1.35036800e-02, 1.44243017e-02, -7.58052757e-03, -2.57771518e-02,
       -1.03203543e-02, 2.48613060e-02, -9.49281361e-03, 8.99434648e-03,
       -2.28218287e-02, -2.09797490e-02, 1.40428459e-02, -2.32358817e-02,
       -4.96331230e-02, -1.67097971e-02, -2.14371942e-02,
       -2.84180082e-02, -2.91347504e-02, -4.26985212e-02,
       -4.57116812e-02, -2.21920032e-02, 2.76555680e-02, 2.72212047e-02,
       4.75583225e-02, 2.34595947e-02, 2.21048365e-03, -2.24478748e-02,
       -1.73007790e-02, -4.13668454e-02, 7.18465634e-03, -2.37823073e-02,
       1.95459276e-02, 9.55031738e-02, 7.13933781e-02, 2.63927262e-02,
       6.98043406e-03, -3.83449979e-02, -6.68098256e-02, -3.89977247e-02,
       5.07004969e-02, 7.20566735e-02, 8.32547173e-02, 5.50701693e-02,
       4.61833179e-02, 1.91678144e-02, 9.79304779e-03, -2.99574137e-02,
       -2.27223718e-04, 2.02319324e-02, 1.87799218e-03, -2.58068438e-03,
       -2.98268236e-02, 1.10205933e-02, -4.52649817e-02, -5.71010215e-03,
       3.12857106e-02, 4.05795462e-02, -4.11659814e-02, -5.03890403e-02,
       -1.19254915e-02, 6.40080776e-03, 4.60519874e-03, -4.35123593e-02,
       1.50813116e-02, 7.96083659e-02, 1.59499254e-02, 7.75981098e-02,
       4.13665660e-02, 1.04589174e-02, -1.62700564e-02, 2.72900909e-02,
       -3.10915280e-02, 1.37831913e-02, 5.42899296e-02, 8.99856761e-02,
       1.20333384e-03, -2.83720647e-03, 3.82858925e-02, 2.38318648e-02,
       -1.68010569e-03, -3.03870775e-02, 5.57397492e-02, 1.23835929e-01,
       8.25118795e-02, -2.21417695e-02, 8.06165412e-02, 1.18231483e-01,
       8.55377614e-02, -1.26861259e-02, -3.82182784e-02, -1.17118042e-02,
       1.89487413e-02, -3.52652706e-02, -7.12681736e-04, 7.50151053e-02,
       5.88918701e-02, 4.62591695e-03, -1.87758338e-02, -5.70385791e-02,
       -4.67861556e-02, -4.95332517e-02, -7.88999572e-02,
       -4.11739051e-02, 9.32148695e-02, 1.23646140e-01, 5.73481731e-02,
       1.04077114e-02, -3.34135140e-03, 1.70070138e-02, 5.95307983e-02,
       -2.93862028e-03, -3.79835032e-02, 2.25258432e-02, 1.27316657e-02,
       -3.85969393e-02, -1.52840447e-02, -4.73555438e-02,
       -1.05182761e-02, -3.58840898e-02, -7.73351341e-02, 2.80054640e-02,
       1.23178877e-01, 9.76872351e-03, 1.64742842e-02, -1.99627168e-02,
       -1.92335099e-02, 1.43491244e-02, 2.30602827e-02, -5.25132716e-02,
       2.35949759e-04, 3.49616148e-02, -5.25170453e-02, -1.27290795e-02,
       -2.15081149e-03, -2.65096091e-02, 1.45829050e-02, 1.72380283e-02,
       -1.43985972e-02, 9.53784504e-04, 3.73011343e-02, -3.87614742e-02,
       -3.17892469e-02, -2.62918565e-02, -4.83333040e-03, 1.94872282e-02,
       2.02145465e-02, -4.32941280e-02, -2.01588427e-03, -7.65863247e-03,
       -6.21385649e-02, -2.21125744e-02, -8.42938107e-03,
       -2.79909540e-02, -1.96586307e-02, 4.86755231e-03, 2.06971243e-02,
       2.07348727e-02, 3.58045660e-02, -2.58096997e-02, -6.27232436e-03,
       -2.56618056e-02, -2.38320371e-03, 1.17424875e-02, 3.11004724e-02,
       3.01815197e-02, 3.66699770e-02, 9.25478563e-02, -7.24111358e-03,
       -1.03597390e-02, -1.76356267e-02, -5.44035574e-03, 4.78808302e-03,
       4.17923778e-02, -1.62261426e-02, 1.63796376e-02, 2.99281571e-02,
       -1.98686533e-02, 1.02809789e-02, -1.76454745e-02, -4.40182462e-02,
       -3.28481197e-02, -2.76401429e-03, 8.46095942e-03, 7.48634664e-03,
       9.01929336e-04, -4.65208888e-02, -5.16575389e-02, -4.36942689e-02,
       -4.19000685e-02, -2.57449807e-03, 5.10234525e-03, -2.18116529e-02,
       3.05469595e-02, 1.09657615e-01, -1.30343363e-02, -6.92771887e-03,
       -1.96037181e-02, -6.80544821e-04, -5.03645651e-03, 3.65135483e-02,
       1.92847010e-02, 3.72694395e-02, 1.01758704e-01, -2.48026829e-02,
       -3.19404602e-02, -2.78749373e-02, -7.86797144e-03, 3.14712040e-02,
       3.30602415e-02, 6.05108123e-03, -1.43367043e-02, 2.17952691e-02,
       -1.33186420e-02, -8.44765734e-03, -1.30053731e-02,
       -7.33402977e-03, 5.79094980e-03, 4.20448836e-03, -1.43187623e-02,
       -4.40759258e-03, 1.98488403e-02, -9.65073146e-03, -2.33491380e-02,
       -4.88040112e-02, -1.73161794e-02, -1.76289044e-02, 1.81602389e-02,
       3.10291769e-03, 6.25127926e-02, 8.09911266e-02, 1.43385483e-02,
       -1.97603106e-02, -2.08672862e-02, 3.95788960e-02, 1.37848239e-02,
       4.19537127e-02, 4.25578952e-02, 6.39408082e-02, 4.30298075e-02,
       -1.07777854e-02, -4.12587859e-02, -2.04380527e-02, 3.58630046e-02,
       -6.55022589e-03, 8.20055977e-02, 7.34761804e-02, 2.68348847e-02,
       3.79651524e-02, -6.01641741e-03, -1.62290372e-02, -1.86566450e-02,
       4.96618561e-02, 1.37024205e-02, 2.60263924e-02, -6.10484648e-03,
       -5.09642325e-02, -2.62093525e-02, -3.13479491e-02,
       -6.59383312e-02, -1.15192784e-02, -1.88574586e-02,
       -3.88713516e-02, -3.79526825e-03, -8.25425517e-03, 3.40924077e-02,
       2.46277675e-02, -7.68485479e-03, -2.50665769e-02, -4.67067584e-03,
       1.14432694e-02, -2.55417805e-02, 8.94032195e-02, 1.05276369e-01,
       8.91829375e-03, -1.74579839e-03, -3.46899293e-02, -1.66967120e-02,
       6.45342236e-03, -5.81888063e-03, -3.88643704e-02, 4.45960388e-02,
       4.87543158e-02, -4.33132872e-02, -1.77616943e-02, -3.76300178e-02,
       -3.84427123e-02, -2.29476579e-02, -3.32491249e-02,
       -5.42149022e-02, 3.10296100e-02, 2.29637846e-02, 2.91897613e-03,
       -1.47592719e-03, -3.94590870e-02, -2.46095601e-02,
       -3.48155177e-03, 7.67736230e-03, -4.69442569e-02, 2.15723254e-02,
       1.17040295e-02, 1.14801191e-02, 2.20194031e-02, -3.00735179e-02,
       -2.36699004e-02, -3.45266983e-02, -1.68556273e-02,
       -2.55531352e-02, 2.37067081e-02, 3.15336101e-02, 6.21535722e-03,
       1.20379580e-02, -3.98536138e-02, -5.44165187e-02, -4.25654277e-02,
       -4.14041504e-02, -6.28257692e-02, -6.03124558e-04, 1.50162575e-03,
       9.73676704e-03, 8.26359633e-03, -4.46077213e-02, -2.65778806e-02,
       -1.59110185e-02, -2.70886303e-05, -2.61048898e-02, 2.49859281e-02,
       3.31474957e-03, 5.27311955e-03, 3.00079044e-02, -2.85934545e-02,
       -4.38930020e-02, -2.53286976e-02, -1.13485437e-02,
       -3.49668264e-02, 2.18053292e-02, 1.67095903e-02, 5.60852932e-03,
       1.25638451e-02, -4.24793698e-02, -3.70800495e-02, -9.24155209e-03,
       -1.10221542e-02, -5.42674325e-02, 1.31286040e-03, -2.35662591e-02,
       1.00812512e-02, -2.44684890e-03, -3.15039903e-02, -7.35950051e-03,
       -1.59335956e-02, -1.09606003e-02, -3.63939926e-02,
       -3.09448875e-02, -1.29211545e-02, -6.62021665e-03, 7.68266693e-02,
       -7.75111793e-03, -1.61461644e-02, -1.99189922e-03,
       -4.15115384e-03, -2.27150396e-02, 7.20705884e-03, -2.23468412e-02,
       2.15247422e-02, 3.03038545e-02, -8.20644386e-03, -3.04791778e-02,
       -2.77211871e-02, -1.20679894e-02, -4.24916297e-02,
       -1.66264251e-02, 2.32699700e-02, -2.08994243e-02, -3.55935544e-02,
       -3.16095576e-02, -1.84123963e-02, -2.63894033e-02,
       -1.15561122e-02, -5.91213815e-02, -3.22205648e-02,
       -2.25473493e-02, -2.51472946e-02, -1.90289263e-02,
       -2.74233911e-02, -3.16891782e-02, -4.68218550e-02,
       -1.71377454e-02, -2.79509239e-02, -1.33900950e-02,
       -4.10172418e-02, -7.52429804e-03, 8.73478316e-03, -4.06533480e-02,
       -3.98049802e-02, -2.92542130e-02, -9.97079443e-03,
       -3.71724702e-02, 1.66400000e-02, 5.30810244e-02, -1.29220802e-02,
       3.51593494e-02, -5.04143117e-03, -9.69308522e-03, -2.81928070e-02,
       -2.61520874e-02, -3.22634983e-03, 2.04093233e-02, 4.77290303e-02,
       -2.34185755e-02, 2.61796266e-02, 1.56222861e-02, -8.05057818e-04,
       -2.64168251e-02, -6.26351172e-03, 4.09954600e-03, 1.83100384e-02,
       -2.16108225e-02, -4.60628048e-02, -1.64375454e-02,
       -1.92075502e-02, -4.23749425e-02, -3.47486213e-02,
       -5.22395931e-02, -1.92835853e-02, -1.48059358e-03,
       -4.73691225e-02, 3.84370983e-02, 8.70429352e-02, 6.94912896e-02,
       5.01240827e-02, -1.68011244e-02, -1.59285888e-02, 5.58271119e-03,
       2.49372590e-02, 3.29542570e-02, 2.50408035e-02, 3.99140380e-02,
       6.40122369e-02, 2.49306913e-02, 1.01128058e-03, 5.88353211e-03,
       -2.37668236e-03, 2.20041387e-02, 2.64096018e-02, -8.41390435e-03,
       -1.77449435e-02, -1.08750947e-02, 1.88531657e-03, 3.86256725e-02,
       4.77230512e-02, 3.65976840e-02, 2.65605897e-02, -3.31561151e-03,
       -2.98006479e-02, -7.20779225e-02, -7.38446340e-02,
       -8.45704973e-02, -2.62178909e-02, -7.30990339e-03,
       -3.49165760e-02, -4.37792167e-02, -4.22844887e-02, 4.77664918e-02,
       4.40810136e-02, 3.78472544e-02, 5.95237836e-02, 9.92967188e-02,
       1.00107968e-01, 5.00374958e-02, 6.34410605e-02, 5.16961925e-02,
       -1.92411896e-02, -5.14625609e-02, -3.80546525e-02,
       -3.77478935e-02, 4.64109071e-02, 9.92527977e-03, -3.03928927e-02,
       -3.12622339e-02, -1.30737387e-02, 3.22197378e-02, 4.51949891e-03,
       7.22558424e-03, 2.49143466e-02, -6.11935090e-03, 2.96131261e-02,
       -3.51267029e-03, -5.24986256e-03, 1.18044047e-02, -4.20506718e-03,
       -2.68331375e-02, 1.81990527e-02, 7.79139344e-04, -2.65067946e-02,
       2.26589721e-02, -1.05191946e-04, -5.67757227e-02, -3.41181420e-02,
       1.50651233e-02, -6.54832507e-03, 4.56500091e-02, 2.29993612e-02,
       -1.91280246e-02, 3.75371352e-02, 2.31587663e-02, -1.03199426e-02,
       3.53819951e-02, 1.35014430e-02, -4.47764732e-02, -6.84091449e-03,
       -1.97635032e-03, -4.77472842e-02, 3.28266062e-02, 2.65564513e-03,
       -4.74804966e-03, -3.72726331e-03, 5.44962175e-02, -4.93735224e-02,
       -3.57879028e-02, -3.21206041e-02, 3.70131470e-02, -1.78060513e-02,
       -4.07489538e-02, -3.01279090e-02, 6.07523397e-02, 4.13163565e-02,
       -3.01762559e-02, -2.60635074e-02, 1.41482251e-02, 1.40517373e-02,
       2.71880534e-02, 4.08663880e-03, -3.09945196e-02, 5.05943336e-02,
       5.17629609e-02, -2.67691016e-02, -2.91931704e-02, -1.85750090e-02,
       1.94950961e-02, -2.93845143e-02, -6.09461516e-02, -5.45088761e-02,
       6.58393428e-02, 5.66130914e-02, -9.59614012e-03, 6.47223927e-03,
       3.61730270e-02, 3.54008861e-02, 3.45408102e-03, -6.47963397e-03,
       -5.00375368e-02, 7.09438175e-02, -5.78285865e-02, -2.73362529e-02,
       6.00672550e-02, 5.62885962e-02, 2.90130600e-02, 4.83455919e-02,
       1.89187378e-02, -5.96006885e-02, -4.86774594e-02, -1.03659546e-02,
       4.16087806e-02, 8.66599604e-02, 6.34749159e-02, 3.94248962e-02,
       5.91636859e-02, 5.18988110e-02, -2.75112446e-02, -4.88943011e-02,
       -4.83983308e-02, -4.90917303e-02, 7.21751887e-04, 3.12364865e-02,
       5.77661432e-02, 5.69256805e-02, 6.58940673e-02, -4.08920720e-02,
       -3.43402699e-02, -2.91694161e-02, -1.95500068e-02, 2.22534221e-02,
       2.00228896e-02, 1.22109614e-02, 6.65432289e-02, 6.54657036e-02,
       4.07829843e-02, -1.06265722e-02, 5.65902740e-02, 3.34466323e-02,
       2.05050465e-02, 5.37609495e-03, -1.70942936e-02, -1.48382820e-02,
       -2.67293653e-04, 1.07743023e-02, 2.84937285e-02, -1.17477085e-02,
       -7.62258237e-03, 1.67556461e-02, 2.41964753e-03, 2.62842304e-03,
       -1.72273032e-02, 3.40635367e-02, 4.61141542e-02, 1.62913017e-02,
       6.27722517e-02, 6.78325370e-02, 2.88577918e-02, 2.85725319e-03,
       -1.97374192e-03, -3.43734515e-03, -4.49375436e-03, 2.52970699e-02,
       3.46874222e-02, 2.66142352e-03, 6.29877672e-02, 2.55719777e-02,
       -2.84449961e-02, 2.68522110e-02, -2.36443989e-03, 2.06832718e-02,
       -4.47476050e-03, -9.82800592e-03, -6.76981509e-02, 1.90337580e-02,
       5.76803163e-02, 5.39945588e-02, 1.94746777e-02, 4.51732874e-02,
       6.72641695e-02, 6.15634248e-02, -4.54640575e-02, -9.22757834e-02,
       -1.89449620e-02, -2.31622066e-02, -1.18669132e-02, 1.13223027e-02,
       4.35356284e-03, 4.17541005e-02, -3.00036417e-03, -6.03081062e-02,
       -4.18413691e-02, 4.86197397e-02, 5.95273636e-02, 4.33518775e-02,
       4.05418463e-02, 7.25320503e-02, 7.99445957e-02, 4.87169921e-02,
       -3.16897854e-02, -6.92516342e-02, -4.44558300e-02, 2.05760654e-02,
       2.60912487e-03, 3.90561670e-02, 2.58498616e-03, 1.93707610e-03,
       -1.08772283e-02, -4.19098474e-02, -5.35990931e-02, 2.67225932e-02,
       -4.83387290e-03, 1.17511174e-03, -7.52145424e-02, 2.48676538e-02,
       3.75514813e-02, 2.44383719e-02, -2.83419378e-02, -3.06507535e-02,
       -1.19712660e-02, -2.96382848e-02, -2.75231656e-02,
       -7.15125278e-02, -2.40063965e-02, -2.52392069e-02,
       -9.81655554e-04, -4.30482952e-03, -3.76150236e-02, 2.26595588e-02,
       2.83293761e-02, 1.74679812e-02, -8.26766714e-02, 1.05839595e-03,
       -1.62115097e-02, 2.06522029e-02, -2.53461450e-02, -1.27608562e-02,
       1.29734026e-02, -3.04120146e-02, -3.67402509e-02, -8.62714797e-02,
       -4.77232710e-02, -3.94783691e-02, -8.58698972e-03,
       -3.39545719e-02, -1.56257041e-02, 3.60993389e-03, -3.18513834e-03,
       2.11825548e-03, -2.39634104e-02, 9.98298405e-04, -1.48163168e-02,
       2.06874553e-02, 2.61038519e-03, -4.56940159e-02, 5.52174170e-03,
       -1.96405593e-02, -3.95719893e-02, -7.00886399e-02,
       -1.30640278e-02, 1.61393024e-02, 2.96037700e-02, -5.27638942e-02,
       1.46361161e-02, 4.09598798e-02, -3.29895876e-03, -1.39050102e-02,
       -1.09729012e-02, 6.61713397e-03, 1.24374265e-02, 4.67216857e-02,
       7.23162433e-04, -5.05997315e-02, 3.51086706e-02, 2.76194885e-04,
       -2.49078441e-02, -5.80659360e-02, -1.97202489e-02,
       -2.04651384e-03, 1.49851684e-02, -5.32230362e-02, -2.96508539e-02,
       2.66060811e-02, -2.21275445e-02, 6.23535551e-03, 9.00838617e-03,
       3.26385610e-02, 1.53016243e-02, 1.97987212e-03, -6.24230690e-02,
       -3.21094804e-02, -1.80585571e-02, -1.55213312e-03, 2.37733033e-02,
       1.66315250e-02, 4.38933149e-02, 1.18901758e-02, 1.95441153e-02,
       -2.27111951e-02, -5.46330772e-02, 3.85356229e-03, 2.46517127e-03,
       2.57315356e-02, 2.16368046e-02, 1.33463005e-02, -7.33595761e-03,
       8.94477498e-03, -5.19283786e-02, -3.52459885e-02, -4.04041680e-03,
       2.59005302e-03, 2.92132869e-02, 1.13990605e-02, -2.38575116e-02,
       -4.04229797e-02, -1.87319126e-02, -3.25603150e-02,
       -3.67034636e-02, 3.07408348e-03, 1.92644391e-02, 3.33477259e-02,
       3.58522534e-02, 6.64635301e-02, 1.77492611e-02, 2.86600720e-02,
       -2.39485763e-02, -2.94448007e-02, -2.37329397e-02, 1.15087125e-02,
       1.16447881e-02, 2.79265977e-02, -1.12129403e-02, -7.52465753e-03,
       -3.20458924e-03, -3.78597081e-02, -3.58512476e-02, 3.16133946e-02,
       2.32463349e-02, 6.46416470e-02, 4.51681800e-02, 3.83348614e-02,
       8.74405820e-03, 3.02652857e-04, -3.81407961e-02, -3.79350595e-02,
       4.92871441e-02, 2.88559180e-02, -5.69319166e-03, 3.45382057e-02,
       -2.42044378e-04, 2.64448896e-02, -3.27060893e-02, -3.40425931e-02,
       -4.16235626e-02, -4.73701069e-03, -2.56149657e-03,
       -1.13083078e-02, -2.32212641e-03, -1.22005744e-02,
       -6.00715242e-02, 6.69688918e-03, -2.78212745e-02, 1.03456648e-02,
       4.03767936e-02, -1.86932180e-02, -3.72736226e-03, 2.59266458e-02,
       1.31116072e-02, -4.86675091e-02, 7.83549249e-03, 9.58657637e-03,
       1.46225784e-02, 6.97398707e-02, -1.15947770e-02, -2.32210085e-02,
       -1.38941011e-03, 3.35210166e-03, 1.95410084e-02, -2.76102824e-03,
       -6.02587946e-02, 1.16988746e-02, 6.31017759e-02, -1.54766422e-02,
       -2.75403820e-02, 3.99206355e-02, -1.38918543e-02, -2.86810193e-02,
       4.94507374e-03, -5.76476473e-03, 1.84419043e-02, 5.05570434e-02,
       -3.16603519e-02, -2.81249564e-02, 1.27343461e-02, -7.22558051e-03,
       -3.03655006e-02, 1.54385203e-02, 2.17401832e-02, 3.13176438e-02,
       6.27208054e-02, 1.72583535e-02, -3.86487395e-02, -2.73225065e-02,
       -3.05651594e-02, 2.18611117e-03, 4.00312431e-02, 1.93161424e-02,
       -2.44582668e-02, 2.57658567e-02, -5.26150055e-02, -3.09929457e-02,
       5.12013026e-03, -3.05225272e-02, -4.26036902e-02, 3.97399291e-02,
       -3.64638073e-03, -1.68877859e-02, 3.45784537e-02, 2.22975528e-03,
       -1.57339964e-02, -9.02228989e-03, -5.54183722e-02, 1.49951302e-05,
       6.15433231e-02, 1.20589994e-02, 1.14666438e-02, 6.46614954e-02,
       1.02890097e-02, -1.34271085e-02, 1.03624389e-02, -8.12087557e-04,
       -1.59689225e-03, 4.17948924e-02, -2.81552039e-02, -5.59829583e-04,
       1.17801558e-02, -4.86310087e-02, -4.94076274e-02, -2.61048283e-02,
       -1.58104450e-02, -3.02960910e-02, 1.23803420e-02, -1.43332379e-02,
       -4.60729450e-02, 2.35337447e-02, -1.09008402e-02, -2.64253654e-03,
       9.16360132e-03, -2.81311795e-02, -1.03607848e-02, 5.70184141e-02,
       -6.02656417e-03, -3.05286739e-02, -2.30012331e-02,
       -3.73654477e-02, 8.69769254e-04, -1.51146976e-02, -5.72461262e-02,
       -6.02854639e-02, 2.57912036e-02, 6.61808765e-03, -2.91923061e-02,
       7.09565915e-03, -3.57888266e-02, -2.11181510e-02, -2.06186713e-04,
       -1.92179959e-02, -5.93902767e-02, -2.01514252e-02, 2.24715900e-02,
       -7.17907632e-03, -7.22250622e-03, -1.91697683e-02,
       -1.16395326e-02, -4.40393053e-02, -3.48861665e-02,
       -2.52333190e-02, -4.09075757e-03, 2.64145862e-02, -1.13161206e-02,
       -1.63135305e-02, -6.01446740e-02, -3.41903558e-03, 1.08580152e-02,
       -6.05654195e-02, -7.41837099e-02, 3.33074504e-03, -1.48114879e-02,
       3.88461770e-03, -6.95047062e-03, -3.92927043e-02, -1.42267300e-02,
       -2.56612487e-02, -4.23577614e-02, -5.07507063e-02, 1.06251268e-02,
       -2.09824438e-03, -6.23537274e-03, -2.42521837e-02,
       -6.94254553e-03, 2.50525922e-02, -4.13689390e-03, -7.45121203e-03,
       -2.73428834e-03, -2.90829875e-03, 4.53127772e-02, 1.23130111e-03,
       5.71245886e-03, 8.99947528e-03, -1.38206780e-02, 2.64846277e-03,
       2.43972801e-03, 2.76274048e-03, 9.57423635e-03, 3.40803526e-02,
       2.01601665e-02, 4.13690414e-03, -1.41282668e-02, 1.42385177e-02,
       -1.56237010e-03, 1.05947433e-02, 1.79886799e-02, 2.43212692e-02,
       9.07066092e-03, 2.50267889e-02, 8.91824625e-03, 4.36085183e-03,
       -8.50421004e-03, 1.20097445e-02, -1.46664148e-02, 1.07896805e-03,
       2.19804123e-02, 7.20372377e-03, 3.19630504e-02, 4.99772616e-02,
       3.34265418e-02, 5.85842431e-02, 9.79342535e-02, 9.21017230e-02,
       3.90748493e-02, 4.36715595e-02, 6.56631961e-02, -3.95370983e-02,
       -5.10478765e-02, -2.96533164e-02, -3.30251008e-02, 4.14495394e-02,
       -2.36179661e-02, -4.18298617e-02, -3.59563604e-02,
       -3.88501994e-02, 4.22720537e-02, 2.30829362e-02, 2.15067100e-02,
       8.39049816e-02, 6.42585829e-02, 4.55218107e-02, 1.55685833e-02,
       2.93089952e-02, 2.91447621e-02, -5.42557202e-02, -6.26256913e-02,
       -3.22132483e-02, -3.19227502e-02, 2.81620938e-02, -3.69334966e-02,
       -5.66219352e-02, -7.73934945e-02, -6.36937022e-02, 3.66743392e-04,
       -2.61740051e-02, 3.49231176e-02, 3.65224481e-02, -1.01914974e-02,
       1.53828626e-02, 1.83427278e-02, -1.68845579e-02, 1.55089702e-02,
       3.25403698e-02, -1.83366127e-02, -2.36230390e-03, 1.03245089e-02,
       -4.66515794e-02, 2.93904394e-02, -1.88188609e-02, -1.05280112e-02,
       3.39152068e-02, 1.22736869e-02, -7.01936614e-03, 2.80347019e-02,
       3.25220078e-02, 3.46893333e-02, 1.27387866e-02, -1.45197548e-02,
       -4.37119231e-02, -4.76868264e-03, 9.72850341e-03, -1.87281705e-02,
       -1.51344212e-02, 3.98386344e-02, 7.94970244e-03, -2.01073056e-03,
       -3.31999920e-02, -3.72255594e-02, 1.11147286e-02, 1.72009338e-02,
       -1.79101471e-02, -1.70681160e-02, -7.62842922e-03, 2.94660088e-02,
       6.13008440e-03, -1.56819280e-02, -2.21110284e-02, 8.45381804e-03,
       1.33421523e-02, -9.36589483e-03, -1.29959136e-02, 4.17884998e-03,
       1.96785741e-02, 1.01525942e-02, 1.08464276e-02, -4.71987166e-02,
       1.05965761e-02, 2.48711053e-02, -2.76399776e-02, -1.27371950e-02,
       -9.53809172e-03, -1.42017948e-02, 3.25557627e-02, -1.38074718e-03,
       -1.56872217e-02, -2.03310642e-02, 4.71565351e-02, 4.88933735e-03,
       -1.49190435e-02, -1.00312242e-02, -8.09132773e-03, 2.46432275e-02,
       2.21195612e-02, -6.66821143e-03, 2.14868560e-02, -2.37656832e-02,
       -4.96271774e-02, -2.67326534e-02, -1.63959768e-02, 3.98620106e-02,
       7.87058994e-02, 1.00730032e-01, 1.21589024e-02, 2.27850815e-03,
       -8.50263517e-03, -2.52810735e-02, 8.37849511e-04, 3.98951443e-03,
       2.33820789e-02, 6.65028095e-02, 7.45248869e-02, 8.53578299e-02,
       5.19084185e-02, -6.81774830e-03, -5.04108109e-02, -4.06487137e-02,
       -3.97523418e-02, -1.97520256e-02, 1.09630862e-04, 4.62058336e-02,
       -8.49438552e-03, -1.75835136e-02, -1.05561400e-02,
       -3.31261344e-02, -2.33923402e-02, -2.67530698e-02,
       -3.63856624e-03, 1.13705844e-02, 6.07086308e-02, 6.57336041e-02,
       1.35224247e-02, 7.06578791e-02, 6.02868609e-02, 9.84503236e-03,
       -1.52867017e-02, 6.12426456e-03, -1.40347593e-02, -1.17236376e-02,
       3.77929211e-02, 5.08848242e-02, 6.94279745e-02, 1.07110709e-01,
       4.08823974e-02, -2.84456797e-02, 4.24680635e-02, 5.41589074e-02,
       5.39123155e-02, -7.14397198e-03, 2.50527891e-03, 3.02650947e-02,
       1.36809014e-02, -1.89452525e-02, -1.26625514e-02, 1.75920296e-02,
       -3.81805189e-02, -9.41324607e-03, 2.69558677e-03, 3.35438885e-02,
       4.49596765e-03, 3.16149555e-02, -4.76542191e-04, -2.12726817e-02,
       5.34502380e-02, 1.36488322e-02, -5.09364484e-03, -4.20512818e-02,
       -9.17212944e-03, -3.29050571e-02, 4.52504046e-02, 3.33771738e-03,
       -3.86612378e-02, -1.02386959e-02, 9.37555432e-02, 1.27086863e-01,
       7.91832879e-02, -4.32845950e-02, -5.86982295e-02, -1.53324688e-02,
       -2.27557048e-02, -5.13280332e-02, -1.32128960e-02, 9.01698135e-03,
       4.77049090e-02, 3.65206376e-02, 4.32788115e-03, -3.93724106e-02,
       3.11778709e-02, -1.17587456e-02, -4.13350426e-02, 2.52033882e-02,
       7.32058808e-02, 1.24903470e-01, 8.36105421e-02, -1.11349951e-03,
       -6.40063882e-02, -1.84258502e-02, -3.71704847e-02,
       -5.87706342e-02, 6.96704444e-03, -8.93249933e-04, 4.76548634e-02,
       9.56043899e-02, 2.32666475e-03, -4.17098776e-02, 9.35413688e-03,
       -1.44450436e-03, -5.63963410e-03, -2.95934398e-02,
       -2.20012013e-02, -3.13519053e-02, 2.29182355e-02, -5.03262672e-05,
       5.85551420e-03, 2.75371373e-02, -1.04978615e-02, -2.78322157e-02,
       -4.04118747e-02, -2.66527608e-02, -4.55394834e-02,
       -1.61046553e-02, -7.92759750e-03, -3.44250090e-02, 1.30976327e-02,
       -4.44882596e-03, -1.49234813e-02, 1.34702527e-03, 1.41273206e-02,
       3.03208306e-02, 1.13674022e-01, 3.33303176e-02, 4.46448190e-04,
       1.68808810e-02, 2.23276410e-02, -2.67877728e-02, -1.45388059e-02,
       -1.00168446e-02, -4.12528776e-02, 6.26872405e-02, 1.23765701e-02,
       -4.77987807e-03, 2.87488587e-02, -1.29478937e-02, -2.59385556e-02,
       -2.24445462e-02, -1.54227472e-03, -3.25801447e-02, 1.97325256e-02,
       9.90541093e-03, -3.87397148e-02, 1.18602542e-02, -2.53597461e-02,
       -3.95839922e-02, -4.37638946e-02, -3.92088555e-02,
       -3.93428616e-02, 4.17375751e-03, 3.91062768e-03, 1.71049517e-02,
       4.27308492e-02, 6.38969475e-03, -2.49985587e-02, -3.13569829e-02,
       -8.86424072e-03, -1.24271559e-02, 6.36810139e-02, 1.76597927e-02,
       -1.54706473e-02, 4.25170735e-02, -2.31235730e-03, -3.77766117e-02,
       -1.96460579e-02, -2.05742680e-02, -4.78014257e-03, 7.29381889e-02,
       3.26888710e-02, -4.16005179e-02, -4.59219981e-03, -1.27245402e-02,
       -8.79450422e-03, -1.17300684e-02, -1.41574079e-02,
       -3.33709852e-03, 4.16945405e-02, -1.15626408e-02, -2.50479095e-02,
       -1.51037518e-02, -3.44263837e-02, 9.01445281e-03, -2.75606792e-02,
       -5.63804768e-02, -5.42581975e-02, 1.25743821e-02, -4.05760333e-02,
       2.33319495e-02, 1.35360751e-02, -1.01070069e-02, -7.66532728e-03,
       -2.89590638e-02, -1.68400593e-02, 1.55272372e-02, 1.32645771e-01,
       4.51445021e-02, 3.31459497e-03, 1.09886583e-02, 1.66323371e-02,
       4.52201068e-03, 1.77736115e-03, -4.80864011e-02, -3.71502154e-02,
       9.64803696e-02, 2.53492557e-02, -3.60498726e-02, -4.05224971e-03,
       -2.62800194e-02, 2.39104796e-02, -3.49464789e-02, -4.78893286e-03,
       -1.82793513e-02, 5.75942732e-02, 7.06196809e-03, -2.13163197e-02,
       4.64180345e-03, -4.69014086e-02, -2.43443456e-02, -1.89747680e-02,
       -3.61282267e-02, -8.09290074e-03, 3.93351540e-03, -3.29056755e-02,
       2.63644364e-02, 1.54731506e-02, -1.78215653e-02, 1.83091052e-02,
       -1.40435854e-02, -1.10543128e-02, 6.15675095e-03, 7.63068944e-02,
       5.32750823e-02, 6.36904463e-02, 4.24650013e-02, -3.31293046e-02,
       1.17273806e-02, -1.59198921e-02, -2.81481091e-02, -2.60016490e-02,
       3.14647518e-02, 3.58896069e-02, 3.54502127e-02, 4.09646742e-02,
       -3.90387215e-02, -3.38532999e-02, -5.98222837e-02,
       -1.76384654e-02, -1.52379628e-02, 3.48311121e-04, -3.79946679e-02,
       1.15598589e-02, 2.02749614e-02, -6.52851164e-02, 6.98422315e-04,
       -4.92616440e-04, -2.99972109e-02, -3.57735790e-02, 5.64228464e-03,
       -1.48858400e-02, 8.03829432e-02, 5.04651479e-02, -3.30100358e-02,
       1.66281722e-02, -1.48088308e-02, -1.95387844e-02, -2.64501777e-02,
       3.04439440e-02, 2.26006042e-02, 4.42437478e-04, 1.37391509e-02,
       -3.87672558e-02, 1.54220117e-02, 2.41830442e-02, -4.07510884e-02,
       -3.82224564e-03, 1.13542993e-02, 3.20036756e-03, 2.89538465e-02,
       2.84743141e-02, -5.08530885e-02, -7.09714880e-03, -3.08495201e-03,
       -3.04876305e-02, -3.04394774e-02, 5.24685197e-02, 4.74084839e-02,
       4.51093540e-02, 1.09459711e-02, -4.92474288e-02, -2.23613083e-02,
       -4.91098240e-02, -4.33226638e-02, -1.93741154e-02, 3.96719724e-02,
       3.75722609e-02, 1.97960529e-02, 1.66209426e-03, -4.45052795e-02,
       -9.46285389e-03, 8.38389434e-03, -3.96768749e-02, -1.31631903e-02,
       2.66758651e-02, 2.27861875e-03, 9.33130737e-03, -1.98415350e-02,
       -7.28921890e-02, -3.35202515e-02, -2.84355599e-02,
       -4.95794676e-02, -2.50405967e-02, 2.40396801e-02, 2.50939769e-03,
       -2.09419187e-02, 1.32036451e-02, -1.27257919e-02, 2.79964623e-03,
       -1.22542409e-02, -2.10961495e-02, -2.41394080e-02, 6.52451888e-02,
       2.29833797e-02, -1.52119249e-02, -4.90271254e-04, -3.19402479e-02,
       8.65236670e-03, -3.21889929e-02, -1.93195026e-02, -4.65987697e-02,
       4.11747731e-02, -1.22090883e-03, -2.71275397e-02, -2.72433963e-02,
       -5.44822775e-02, -2.81007122e-03, 3.72905172e-02, -2.41232384e-02,
       -3.16163525e-02, 1.56438593e-02, -1.36948526e-02, -4.84897122e-02,
       -3.61632481e-02, -4.41780314e-02, -1.34429280e-02,
       -2.10662183e-04, -1.88056077e-03, -4.42462750e-02,
       -1.59178041e-02, -2.44643185e-02, 1.11594116e-02, 1.76383685e-02,
       -4.52390462e-02, -1.75610147e-02, -1.57219917e-02,
       -3.83616053e-02, -5.51511236e-02, 1.70106087e-02, 2.20160978e-03,
       3.43952514e-02, 4.68210503e-02, -2.21666191e-02, -3.49987447e-02,
       -3.60111594e-02, -2.15910394e-02, -1.38006778e-02, 4.58558761e-02,
       2.80321129e-02, -2.98616048e-02, -5.61530925e-02, -7.28731155e-02,
       -3.08340788e-02, -2.09760144e-02, -1.83769278e-02,
       -2.26813424e-02, -3.22130346e-03, -2.33640354e-02,
       -3.57449614e-02, -4.63462658e-02, -5.20770140e-02,
       -5.02509400e-02, -2.79687326e-02, -5.10577746e-02,
       -3.15351039e-02, -1.57732926e-02, 1.74727349e-03, 5.12362123e-02,
       6.75896183e-02, 3.60781737e-02, 1.36632863e-02, 2.38491539e-02,
       4.24746349e-02, 6.20684251e-02, 9.02075619e-02, 7.18306080e-02,
       1.51203771e-03, 3.93023081e-02, 4.02226392e-03, -1.91988312e-02,
       -7.53091741e-03, 9.65227466e-03, 6.72166497e-02, 5.42383045e-02,
       3.33790146e-02, 5.79735264e-03, 1.01298224e-02, -1.32077970e-04,
       -6.28719712e-03, -9.46157146e-03, -2.20275093e-02, 1.31836906e-02,
       2.60569043e-02, 9.06739850e-03, -4.14454937e-02, -9.47371498e-03,
       -1.69437826e-02, -3.94120179e-02, 2.59676133e-03, -5.11491150e-02,
       -7.76262581e-03, 1.04967430e-02, -3.49007770e-02, 3.88917513e-02,
       3.88878807e-02, 3.70390341e-02, 1.07631572e-01, 6.95105791e-02,
       4.88729812e-02, 6.12422340e-02, 5.02254739e-02, 5.42741008e-02,
       -3.05352136e-02, -6.23099580e-02, -3.46196219e-02, 2.30646809e-03,
       1.90143604e-02, -2.75904499e-02, -2.77408604e-02, -4.18250002e-02,
       -3.00378520e-02, 1.26053905e-02, 1.76139250e-02, 3.57939415e-02,
       7.51092732e-02, 5.30705117e-02, 4.41054925e-02, 3.60297859e-02,
       1.08863078e-02, -2.07613432e-03, -4.93165366e-02, -5.13018444e-02,
       -3.90372761e-02, 1.91536136e-02, 3.87029257e-03, -5.41438013e-02,
       -5.33861592e-02, -5.76931536e-02, -3.81372087e-02, 2.44421251e-02,
       -1.65076908e-02, 1.04698364e-03, -9.39217024e-03, 8.19739699e-03,
       -1.81911681e-02, 1.18444683e-02, -2.11140234e-02, -2.26415810e-03,
       1.66455924e-03, -6.02066889e-03, -3.67648550e-03, 3.92590500e-02,
       -2.27215956e-03, -4.99179447e-03, -5.34110283e-03,
       -3.91455293e-02, -2.48882174e-03, 8.65623541e-03, -5.52471820e-03,
       -1.67104825e-02, -1.30523590e-03, 1.75827416e-03, 2.03761477e-02,
       1.74842644e-02, 1.59741044e-02, 1.44742569e-02, -2.08237357e-02,
       -2.65004449e-02, 7.18008168e-03, 4.54070270e-02, -3.01033119e-03,
       4.42610607e-02, 1.57613661e-02, -4.58333455e-02, -1.69280190e-02,
       2.77597755e-02, -1.71207916e-02, 2.18893727e-03, 4.67489753e-03,
       8.81281588e-03, 2.18849466e-03, -2.62381043e-02, -8.05678032e-03,
       1.04262342e-03, 4.18227650e-02, 1.38603821e-02, 3.54630016e-02,
       2.59929406e-03, -2.96681169e-02, -1.35480426e-02, -5.42632816e-03,
       -1.61831044e-02, -1.20984390e-02, 2.15118099e-02, -1.04300678e-02,
       -1.43835275e-02, 2.36041900e-02, 4.45699617e-02, 2.97586489e-02,
       1.11592943e-02, 6.34579128e-03, 3.26111540e-02, 3.26468386e-02,
       3.73610742e-02, 3.54219414e-02, 1.26503697e-02, 7.49934092e-03,
       8.71016551e-03, 8.41422100e-03, -6.91464636e-04, 4.82409038e-02,
       1.87407155e-02, -2.91556586e-02, 1.24808317e-02, 7.67917046e-03,
       -1.61753986e-02, -6.14227913e-03, 1.69489905e-02, -9.01753176e-03,
       -5.84033027e-04, 1.69378370e-02, -2.22957302e-02, -1.47431307e-02,
       2.92017567e-03, -4.52705473e-02, -1.39047671e-02, 5.90473937e-04,
       -7.40605220e-03, -8.58243555e-03, 3.52137536e-02, 9.88767948e-03,
       -6.85097603e-03, 1.82092495e-04, 1.62487905e-02, -5.33417705e-03,
       -2.64322013e-02, -2.14192048e-02, 8.06658529e-03, 2.53664535e-02,
       1.09857200e-02, 8.13107844e-03, 1.77729465e-02, 1.76946539e-02,
       -6.23676833e-03, -2.95881182e-02, -3.39477547e-02, 2.71845274e-02,
       2.49050800e-02, -2.80049280e-03, -3.92594226e-02, 1.26670590e-02,
       1.89354606e-02, -1.80812273e-02, -1.19252866e-02, -3.17683886e-03,
       3.53561365e-03, -1.02960074e-03, 3.06296982e-02, -8.58864980e-04,
       1.45384036e-02, 1.83657315e-02, -8.68972018e-03, -3.62588391e-02,
       -3.43704596e-02, -1.84653830e-02, 3.91448708e-03, 2.49422505e-03,
       1.75077049e-03, -3.43232439e-03, 2.66736187e-02, -9.02348373e-04,
       -1.76891387e-02, -4.32992540e-02, 8.43529962e-03, 1.19620692e-02,
       5.73652945e-02, 5.29458895e-02, 3.09751322e-03, -1.09579100e-03,
       -4.06894600e-03, -8.65226611e-03, -2.51743719e-02, 1.87696870e-02,
       -1.28923319e-02, 2.52863150e-02, 1.95752811e-02, 9.82963666e-03,
       1.43820094e-02, -5.63182682e-03, 3.68469134e-02, 4.79619540e-02,
       -7.53213791e-03, -3.78358252e-02, 1.70666296e-02, 1.59884598e-02,
       -8.86581838e-05, 1.94421280e-02, -2.21795160e-02, -2.62399786e-03,
       6.70641810e-02, 1.61064812e-03, -2.54748557e-02, 8.45372956e-03,
       3.55804861e-02, 1.62424836e-02, -1.09127406e-02, -3.04824486e-02,
       1.94848375e-03, 6.84642931e-04, -1.01283286e-02, -1.38321957e-02,
       1.65931255e-04, 1.15187410e-02, 4.86750109e-03, 3.37194838e-02,
       -2.20471919e-02, -2.04632543e-02, 2.02056710e-02, 9.76100843e-03,
       -3.50269936e-02, -4.34367917e-04, 6.92387903e-03, 2.46601216e-02,
       7.21622817e-03, -3.16132568e-02, -2.39491686e-02, 1.30328745e-01,
       6.97931796e-02, -1.85604338e-02, -1.32054547e-02, -1.32858539e-02,
       3.99268419e-03, 2.18108017e-02, -1.10494709e-02, -4.62099463e-02,
       9.64253768e-02, 3.77606638e-02, -9.01780091e-03, -5.91790583e-03,
       5.40027162e-03, 1.09459106e-02, 2.78283600e-02, -3.64089385e-02,
       -3.80353071e-02, 5.80389984e-02, 3.93018760e-02, -9.75844637e-03,
       -1.33149009e-02, -2.27317214e-02, 1.88095104e-02, 2.60553043e-02,
       -3.12577486e-02, -4.32767533e-02, 5.60657308e-02, 2.35468466e-02,
       -3.46463695e-02, 2.55015157e-02, 8.30703042e-03, 3.94004025e-03,
       2.08664704e-02, 7.07595330e-03, -1.85435005e-02, 6.90695867e-02,
       2.36952212e-02, -4.49942090e-02, -3.54289194e-04, -1.75981801e-02,
       -2.11013909e-02, -1.43409008e-02, 1.24649312e-02, -1.91349331e-02,
       3.62565815e-02, -8.64071585e-03, -1.37569159e-02, 1.36624286e-02,
       2.93508125e-03, 3.06153391e-02, 3.74688879e-02, 1.13602094e-02,
       -3.16226184e-02, 3.52436788e-02, 2.08560303e-02, -4.84572351e-03,
       1.55603094e-03, -2.15547681e-02, -9.63823521e-04, 1.75659545e-02,
       1.76558644e-02, -4.00256366e-02, 9.66679119e-03, -4.30903491e-03,
       -1.08336075e-03, 6.09505875e-03, -1.23929791e-03, 5.00738621e-03,
       1.71422120e-02, 6.70710951e-03, -3.63989212e-02, 8.27506259e-02,
       3.95886078e-02, -1.27272410e-02, 1.82656236e-02, 8.89376272e-03,
       -1.31250275e-02, -2.05071131e-03, -6.75973622e-03,
       -4.35384698e-02, 3.78999524e-02, 1.28470575e-02, 2.26822942e-02,
       2.98380945e-02, -1.89451575e-02, 8.56873672e-03, 4.30620722e-02,
       1.31603181e-02, -4.02071513e-02, -1.56904683e-02, 1.57467963e-03,
       2.09620763e-02, 2.02963166e-02, -2.94626560e-02, -2.63930298e-02,
       2.11581439e-02, -2.66130269e-02, -2.69115120e-02, -2.78104581e-02,
       -1.20794531e-02, 1.87821649e-02, 5.36078773e-02, 1.83757842e-02,
       1.82726458e-02, -1.24507062e-02, 2.45627314e-02, -1.26013756e-02,
       4.84914966e-02, 4.02695052e-02, 2.62096748e-02, 2.26249881e-02,
       -1.25994552e-02, 4.30733077e-02, 2.59021763e-02, 1.80872772e-02,
       -1.78166889e-02, 3.35305557e-02, -4.64401115e-03, 4.42055427e-02,
       4.27735932e-02, -3.10732692e-04, -2.43630148e-02, -2.97006071e-02,
       -1.42954253e-02, -5.61581226e-03, -3.72233205e-02, 1.05547030e-02,
       -1.16722155e-02, 2.78968457e-02, -4.53218445e-03, -8.21152888e-03,
       7.45150121e-03, -2.70387740e-03, -9.40096006e-03, -1.14092464e-02,
       -1.73509400e-02, 4.19260152e-02, 2.11216975e-02, -2.34749448e-02,
       4.66019996e-02, 3.97931151e-02, 3.69235463e-02, -2.75286343e-02,
       4.82086428e-02, 1.12458384e-02, 1.86419878e-02, 4.71478701e-03,
       -3.08102258e-02, 2.30769664e-02, 1.17051760e-02, -2.49118707e-03,
       -2.19130106e-02, -1.35502974e-02, -3.01131178e-02, 2.07763799e-02,
       2.39319075e-02, -3.23591009e-02, 1.48215741e-02, 2.17700601e-02,
       2.50422601e-02, -1.70162655e-02, 4.85112751e-03, -9.64416098e-03,
       -2.32682135e-02, -2.18343846e-02, -6.54618442e-02,
       -3.84525908e-03, 8.09803698e-03, 2.16492661e-03, -5.47456555e-02,
       1.29159791e-02, -2.15485357e-02, -6.22921810e-03, 6.11986732e-03,
       -2.38241646e-02, 1.31949103e-02, -1.57103371e-02, 1.99174248e-02,
       9.42988135e-03, 4.07142974e-02, 1.57795195e-02, -3.23158223e-03,
       1.82357698e-03, -5.05635515e-02, 1.49733108e-02, -1.18560866e-02,
       1.03899790e-02, -2.19945819e-03, 4.19634357e-02, 7.07635144e-03,
       -1.66772492e-02, -1.08330464e-02, -2.49739308e-02, 1.21207619e-02,
       -1.25960466e-02, 2.48966813e-02, -1.87709183e-02, 1.81429088e-02,
       1.21291950e-02, -4.59121093e-02, -4.44137864e-03, -1.35516357e-02,
       1.83718633e-02, -3.67456139e-03, 2.84781773e-03, -1.40441312e-02,
       2.46994719e-02, -2.61508785e-02, 3.48966802e-03, 1.42761124e-02,
       -1.50063410e-02, 3.30411606e-02, 4.00591753e-02, 2.48227082e-02,
       -6.79554231e-03, 4.65332381e-02, 2.54355511e-03, -5.90393273e-03,
       -4.35903482e-03, -2.10306365e-02, 1.88161861e-02, 2.01303698e-02,
       1.54712433e-02, -2.38483548e-02, 2.60248017e-02, 5.13254432e-03,
       -3.94914784e-02, 1.17146587e-02, 6.63333689e-04, 8.12230445e-03,
       1.27720684e-02, -1.14649674e-02, -2.28583310e-02, 3.58915180e-02,
       -3.55322063e-02, -2.99657341e-02, -7.40801590e-03,
       -1.12233022e-02, -2.04798263e-02, -7.03441352e-03, 4.11795825e-03,
       -5.09404615e-02, -9.41274222e-03, -3.89083587e-02, 2.96977884e-03,
       -2.35725264e-03, -2.92684678e-02, 3.98349352e-02, 5.88721074e-02,
       3.50292884e-02, 3.72906448e-03, 3.70702855e-02, 4.95103672e-02,
       -1.13683678e-02, -1.21799093e-02, -1.16717676e-02, 2.44616531e-02,
       1.81706306e-02, -1.06112491e-02, 5.39534166e-03, 8.92127212e-03,
       2.65664533e-02, 5.64830657e-03, 1.24158105e-02, -9.38459300e-03,
       1.85859092e-02, 1.69432145e-02, 1.42219141e-02, -3.04409638e-02,
       -2.66648433e-03, 1.12151643e-02, -5.29139340e-02, -2.12347880e-02,
       -2.88703814e-02, -1.04208533e-02, -3.39779258e-02,
       -3.09554413e-02, -3.63542438e-02, -1.65825188e-02,
       -2.30774693e-02, 2.93667708e-02, 4.63726036e-02, 2.16017459e-02,
       7.62490630e-02, 4.81045917e-02, 2.11815853e-02, 3.03420592e-02,
       3.72455195e-02, 4.46450412e-02, 5.37034729e-03, 3.55595835e-02,
       4.04153019e-02, 5.32478020e-02, 1.85048562e-02, 7.08070537e-03,
       7.50775682e-03, 3.45795304e-02, 1.87044106e-02, -4.03202437e-02,
       1.13071511e-02, -1.29924109e-02, -6.13523601e-03, -1.74235068e-02,
       1.07488828e-02, 1.28888348e-02, 2.18476867e-03, -1.06390817e-02,
       -4.17488813e-02, -2.36675460e-02, -1.45196477e-02, 7.10658729e-03,
       -3.12442961e-03, -2.13396233e-02, -1.87278856e-02,
       -4.14494658e-03, -5.93311852e-03, 4.02791053e-03, 4.58595343e-02,
       6.32670224e-02, 7.48689249e-02, 8.59163143e-03, 5.39973751e-02,
       3.64619344e-02, 1.48627507e-02, 3.38079291e-03, -1.22915450e-02,
       -9.55273025e-03, -2.69487649e-02, 1.04652271e-02, -1.33434283e-02,
       -2.28004213e-02, -2.28100475e-02, -4.57167849e-02,
       -2.53149401e-02, 8.08998756e-03, 1.35458224e-02, 2.21891254e-02,
       2.78980602e-02, -1.22200884e-02, 6.12267386e-03, 1.63480025e-02,
       1.86849863e-03, 2.10291464e-02, 1.84703358e-02, -1.69635415e-02,
       -4.22845930e-02, -3.55606601e-02, -3.59444879e-02,
       -1.66069567e-02, -1.79100130e-02, -1.45313796e-02, 7.88875856e-03,
       3.69675867e-02, 6.40657777e-03, -4.63510817e-03, -2.79157283e-03,
       -1.72896497e-02, 4.08533058e-04, 1.08053042e-02, -1.82130244e-02,
       1.58164334e-02, 3.84988799e-03, -3.23852636e-02, -3.45736952e-03,
       -7.59864633e-04, -1.76757239e-02, 3.52376364e-02, 3.40528600e-03,
       -6.04407080e-02, -3.55267851e-03, 3.33138108e-02, 2.57996586e-03,
       -4.58056061e-03, 3.05064349e-03, 3.75910592e-03, 7.24280905e-03,
       2.88569555e-02, -1.36431493e-02, 1.76951406e-03, 1.51161561e-02,
       -5.83869591e-03, -1.40729090e-02, -1.14757521e-03, 1.47278584e-03,
       2.60264035e-02, -1.35784196e-02, -6.36275485e-02, 6.82994537e-03,
       2.84438487e-03, -3.62657346e-02, -4.35452722e-02, -9.89395101e-03,
       1.07964016e-02, 3.39596011e-02, 1.22274701e-02, -7.13515386e-04,
       2.74354592e-02, 1.18284449e-02, 5.84911183e-03, -8.70440248e-03,
       2.56471895e-03, 4.46112221e-03, 2.43994202e-02, 9.46444832e-03,
       -2.44194362e-03, 4.39683199e-02, 2.19836235e-02, -1.63193140e-02,
       -1.51220793e-02, -9.33474395e-03, -2.92363181e-03, 5.04268482e-02,
       2.15637707e-03, -6.71548024e-03, 2.34391559e-02, 3.58338356e-02,
       1.88740771e-02, -9.87701211e-03, 1.28653310e-02, 8.75284895e-03,
       9.68429912e-03, 1.29116802e-02, 1.40334480e-02, 5.99670634e-02,
       3.92621150e-03, 2.41722213e-03, -1.00084227e-02, 1.33406054e-02,
       2.82419641e-02, 1.72465816e-02, -1.80349580e-03, -1.21889962e-02,
       1.05090989e-02, 8.90610553e-03, -4.37329430e-03, -4.57234215e-03,
       1.60260033e-02, 2.55315863e-02, 1.62276719e-02, -1.82876792e-02,
       -2.01942250e-02, 3.90166864e-02, 2.09023878e-02, 2.93290662e-03,
       -3.65388370e-03, 3.36336717e-02, 2.64377408e-02, 2.33078748e-02,
       1.20849358e-02, -1.21562183e-02, 2.72147395e-02, 1.22579783e-02,
       3.78778093e-02, 1.41781091e-03, 3.05951536e-02, 3.51983728e-03,
       4.10894975e-02, 8.01627710e-03, -1.19063351e-02, 2.84250025e-02,
       -8.94890819e-03, 4.29416774e-03, 2.09683552e-03, 8.43441207e-03,
       -1.29301185e-02, 1.35663636e-02, -4.21909289e-03, -2.52756365e-02,
       1.69235766e-02, 6.89565996e-03, 2.17688084e-02, 1.06859319e-02,
       -5.14127593e-03, 9.01486899e-04, -2.36981828e-03, -1.61928460e-02,
       -5.80473570e-03, 1.63872428e-02, -1.20507926e-02, 1.52743552e-02,
       4.41398891e-03, 4.78162095e-02, -3.58808960e-04, 3.12761851e-02,
       9.28591413e-04, 1.64958183e-02, 4.10460532e-02, 2.33705025e-02,
       -7.34648760e-03, 3.92498169e-03, 2.46227887e-02, 1.77219789e-02,
       1.95097961e-02, -1.09585505e-02, 3.36435437e-02, 4.07716930e-02,
       -1.85269751e-02, 1.19244540e-03, 1.77575613e-03, -1.61910814e-03,
       -2.43764557e-02, 2.17249040e-02, 1.57591365e-02, 1.37014519e-02,
       -6.31307205e-03, -7.79399928e-03, 6.33936049e-03, 9.57797747e-03,
       -1.51045481e-03, -1.14605762e-02, 2.89344992e-02, -7.73808081e-03,
       -7.72567326e-03, -2.40859241e-04, 1.04208710e-02, -1.44702671e-02,
       6.99468656e-03, 1.94418821e-02, 3.21395858e-03, -3.56954103e-03,
       -3.11453938e-02, 3.82189937e-02, 2.12223399e-02, -5.10442443e-03,
       7.58798188e-03, -1.56675652e-02, -4.40611225e-03, -4.32358123e-02,
       -5.08583337e-02, -2.68757194e-02, 2.46242303e-02, -1.24207260e-02,
       -1.04474742e-02, 1.03596458e-02, 1.06888907e-02, 1.08098313e-02,
       1.27837984e-02, 1.97964925e-02, -2.61761062e-02, 1.99450962e-02,
       -3.52535723e-03, 1.12875169e-02, -4.01188899e-03, 4.18280764e-03,
       8.29232950e-03, 1.04101822e-02, -2.08344869e-02, -1.80689730e-02,
       1.84921268e-02, -9.40799620e-03, -2.67081428e-02, 2.27740202e-02,
       -1.58888437e-02, -1.18276768e-03, 1.26599725e-02, 4.76809870e-03,
       -2.16826629e-02, 1.71156749e-02, -3.46649997e-02, -1.26732811e-02,
       -7.89084472e-03, -2.64866482e-02, -1.80008784e-02,
       -4.05139383e-03, -3.41501716e-03, -1.74742211e-02,
       -6.60465471e-03, -2.17569359e-02, -8.47598910e-03, 1.74748115e-02,
       -2.96584005e-03, 2.24522371e-02, 6.78719021e-03, 3.25316377e-02,
       -2.02749502e-02, 6.64099399e-03, 2.60932967e-02, 9.52402968e-03,
       -9.31811333e-03, -1.33093614e-02, -9.39770043e-03,
       -1.23629356e-02, 3.62583902e-03, -5.54059185e-02, 4.65242844e-03,
       1.87888427e-03, 1.72575901e-03, 4.83350223e-03, -1.20674511e-02,
       4.43664985e-03, -1.24639701e-02, 2.46728472e-02, -2.68732756e-02,
       -2.59656720e-02, 8.12427234e-03, 1.23791164e-02, -2.15927400e-02,
       -3.79693927e-03, -1.99630391e-02, -3.55026656e-04, 2.29017884e-02,
       -2.73644924e-02, -1.96920168e-02, 3.98358032e-02, 1.17838886e-02,
       1.66511573e-02, -1.39615795e-05, 3.00579686e-02, 3.57220247e-02,
       4.10550646e-02, -3.19910757e-02, -6.57796720e-03, 2.48399414e-02,
       -2.91768592e-02, 1.34452414e-02, -5.12980185e-02, -1.00671984e-02,
       5.29235415e-03, -1.08113950e-02, -4.10290398e-02, -2.61419043e-02,
       -3.50826047e-02, 3.87063846e-02, 9.04206559e-03, 1.04547450e-02,
       6.77723729e-04, 1.36767058e-02, 4.81217764e-02, -2.63784286e-02,
       1.19734900e-02, 4.07079197e-02, -2.96149147e-03, 5.29824272e-02,
       -2.37575322e-02, -2.07975358e-02, 7.11221714e-03, 1.16683803e-02,
       -3.33776660e-02, -1.00944862e-02, -1.80487093e-02, 2.79007722e-02,
       4.65120040e-02, -1.06433285e-02, 1.36320181e-02, 1.49979526e-02,
       3.96113917e-02, 7.03533459e-03, 1.32891610e-02, 3.18280123e-02,
       2.44094105e-03, 4.50316928e-02, 1.20313950e-02, 4.99300892e-03,
       -2.85153650e-02, 1.73782129e-02, 8.32848903e-03, 2.17825379e-02,
       6.62903581e-03, 2.22892314e-03, 5.29629104e-02, -2.51058117e-03,
       1.57457348e-02, 7.51750963e-03, 3.10010742e-02, -1.98408943e-02,
       1.09449085e-02, -7.93392863e-03, -1.27607991e-03, 4.79162037e-02,
       2.30302030e-04, 1.83372162e-02, -2.15658154e-02, -1.65525805e-02,
       -1.44130574e-03, 2.05765348e-02, -1.03802402e-02, 1.20014520e-02,
       5.49319647e-02, 6.96202042e-03, 1.86011139e-02, -1.60080139e-02,
       1.55340610e-02, 8.90895817e-03, -4.65403358e-03, 1.18704978e-02,
       -1.41462432e-02, 6.78896951e-03, -2.21467260e-02, 8.26903712e-03,
       8.87242332e-03, -8.58697388e-03, -9.29610990e-03, -5.70257101e-03,
       -1.20576303e-02, 2.43259855e-02, 3.79321314e-02, -1.12230824e-02,
       9.32950899e-03, -3.00435051e-02, 6.27624942e-03, 2.48283171e-03,
       -1.91011783e-02, -1.90236811e-02, 9.42733325e-03, 2.71515530e-02,
       -2.84111500e-02, -2.66854971e-04, -2.26983577e-02,
       -1.01073971e-03, -2.95122489e-02, -2.15564407e-02,
       -1.32453935e-02, 2.79884553e-03, 5.90393739e-03, -1.86414942e-02,
       2.50510890e-02, 3.23774107e-03, 3.06215510e-02, -1.10091525e-03,
       2.74576768e-02, 3.69522683e-02, -1.57842804e-02, 8.21927655e-03,
       -7.12796580e-03, 2.06166655e-02, -5.23060001e-03, 1.78160574e-02,
       -1.52126495e-02, 1.96751184e-03, 2.74793850e-03, 3.27378735e-02,
       7.79442396e-03, -2.33252440e-02, -6.36567501e-03, -2.90002078e-02,
       1.71112753e-02, -2.21678037e-02, 3.17855459e-03, -1.82486736e-04,
       1.31986653e-02, -1.23835623e-03, -2.71208100e-02, -1.45781720e-02,
       -3.88253145e-02, -3.44141833e-02, -7.14348033e-02,
       -3.67236696e-02, -1.00855650e-02, -1.17752887e-02, 3.69074456e-02,
       9.68128629e-03, 3.36422250e-02, 1.46893989e-02, 4.53653820e-02,
       3.01955771e-02, 3.31506059e-02, 2.23451145e-02, -3.78343067e-03,
       2.51777247e-02, -6.35139970e-03, -5.22396062e-03, 3.05143241e-02,
       3.69926430e-02, 1.19763687e-02, 1.78376511e-02, -1.98596679e-02,
       -9.81448963e-03, 6.39703963e-03, -1.51998661e-02, -9.29216854e-04,
       -7.18594622e-03, 1.81005783e-02, -3.55774313e-02, -2.38421140e-03,
       -6.85560144e-03, -4.44477573e-02, 5.91119788e-05, -3.78925540e-02,
       -4.03379388e-02, -2.15580370e-02, -1.51311085e-02,
       -2.01579873e-02, -8.11062101e-03, -3.01070455e-02, 2.56911293e-02,
       3.01592983e-02, 5.26068266e-04, 2.59187724e-02, 1.68793052e-02,
       3.19016576e-02, -6.04150910e-03, 1.71677917e-02, 1.27467951e-02,
       -2.99180299e-02, -1.91586539e-02, -2.52358038e-02, 1.74205564e-03,
       -2.28704195e-02, -7.34178070e-03, -1.69333424e-02,
       -5.65816276e-03, -4.86916378e-02, -8.86916649e-03, 1.44642582e-02,
       -2.79057492e-02, -1.40735749e-02, 1.30331423e-02, 1.87219877e-03,
       1.30899092e-02, -1.18686501e-02, -3.14142928e-02, -8.81521683e-03,
       1.23347202e-03, -4.39666100e-02, -2.52076313e-02, -6.39980705e-03,
       -1.80100016e-02, -1.98633168e-02, -2.91727446e-02,
       -4.82259169e-02, -1.28965953e-03, 2.86477096e-02, 2.53145117e-02,
       7.84825906e-03, 2.77751535e-02, 4.60798666e-02, 3.87441330e-02,
       2.70172749e-02, 1.62833445e-02, -2.00574193e-02, 2.91910628e-03,
       2.13406403e-02, 3.49424127e-03, 1.02345757e-02, -6.36049034e-03,
       1.41231194e-02, 2.29033455e-02, 9.44233267e-04, 1.56210931e-02,
       -1.18189775e-04, -7.38133909e-03, -2.45478787e-02, 2.79598925e-02,
       4.25390638e-02, 2.53854915e-02, 7.20348489e-03, -9.74017568e-03,
       -2.93450356e-02, -6.17116783e-03, -1.13679527e-03,
       -4.58115339e-02, 4.41114698e-03, -2.88584065e-02, -2.70991772e-02,
       -2.81572323e-02, -5.98582365e-02, 2.62351055e-02, 1.69719327e-02,
       8.69216304e-03, 1.02437669e-02, 1.60789248e-02, 1.51168182e-03,
       1.94117110e-02, 1.93037521e-02, 5.69421239e-03, 3.05016860e-02,
       -8.44496302e-03, -2.05324106e-02, -1.10539217e-02, 3.15883954e-04,
       2.66851741e-03, 4.54663932e-02, 8.28971248e-03, 5.42541407e-03,
       9.64658801e-04, 2.52024457e-02, -8.06637853e-03, -1.36085255e-02,
       1.83226410e-02, 9.21755005e-03, 3.49741243e-02, 4.25271597e-03,
       -2.19842382e-02, 6.20661769e-03, -3.86748537e-02, -3.23365182e-02,
       4.85570077e-03, 2.99678873e-02, 1.49638485e-02, 1.39730945e-02,
       -2.81692035e-02, -1.81302021e-03, 8.27500876e-03, -3.15899439e-02,
       -1.07020531e-02, 1.64172463e-02, -2.55855210e-02, -2.01297421e-02,
       2.24508923e-02, -1.90875102e-02, 3.41196009e-03, 5.85814612e-03,
       -2.70064138e-02, 4.45034029e-03, 3.27388421e-02, -2.02371441e-02,
       -2.07734425e-02, -1.90831372e-03, -5.36671020e-02, 2.66375281e-02,
       2.33744960e-02, -1.63156055e-02, 8.77983123e-03, 3.26362066e-02,
       -2.01454689e-03, 2.59071756e-02, -3.21257822e-02, -4.76768650e-02,
       1.86666157e-02, 2.56754011e-02, 2.48660892e-02, 3.92844044e-02,
       2.45932676e-02, -2.56278291e-02, 1.61841139e-02, -9.40508675e-03,
       -4.81577441e-02, 3.90327387e-02, -1.39982104e+00 ]
